{"w1": [[0.19083278454045582, -0.8520456812685189, 0.5091914407834677, 0.6308885628221933, -1.4108623242797254, -1.0434804907267121, 0.034700372758594146, -0.2028460232818791, 0.04444122635422779, -0.6126850404894756, 1.085979338705606, 0.487813166884636, -0.09030517152385843, 0.9307664766857867, 0.32949841652558376, -0.6298415777983608], [0.36496875127548345, -0.7292786617892282, 0.6770204779324391, 0.04629415492474289, -0.15652968875707457, -0.528184907181544, 0.919879281056663, -0.05783830437436583, -0.3313303936435114, -0.1534714817920298, 0.2033448343630631, 0.29269901349357746, 0.2667009428721413, 0.31514100849951054, 1.5109589882227037, -0.4434338822496372], [-0.25778518411166396, -0.6312293505417051, 0.49155746440259046, 0.8796963943908833, -0.10755750744244343, -0.6457872291788206, -0.5307674537374439, 0.513161009184305, 0.498524580712011, 0.48022479436870175, -0.6281891003152319, 0.1974665053801109, 0.05262926548168412, 0.16973449389077652, 0.6131634844455712, 0.0003556272517707026], [0.5833279558713346, 0.0034780806699137965, 0.26004784793946695, 0.5279473595156501, -1.0544531692451315, -0.2653480757725477, -0.2779662273602588, -0.40462044753448273, -0.22546314839035517, 1.1512264236654675, -0.8075551162339069, 0.7203988373485862, -1.208195263090159, -0.23413114818222577, 0.11134164429617895, 0.2623806812695661]], "b1": [[0.060707674049067864, 0.05245481595899042, 0.02588111363383829, 0.032342831258018956, 0.03151874252240214, 0.04461219793475439, -0.019058043783874382, -0.0067862437004965305, 0.03535636573451966, 0.06770994173353223, 0.3129089925856049, -0.03249397845543727, 0.015149223214045217, 0.19194377982251593, -0.0021232543168745155, -0.038138445705911274]], "w2": [[0.4012009033230606, 0.22737571484290425, -0.21992237615573038], [-0.23868404652403022, 0.5697773478241469, -0.2588553560748863], [-0.0896983451298542, -0.5288366852378582, -0.5582412048134197], [0.5056522164268498, -0.09274832205529811, 0.057347512339679656], [-0.23588794673136687, 0.41021981907045524, -0.04815664385780263], [-0.18998508177212542, 0.46799879352294205, -0.45991595654549106], [-0.11860302113361686, -0.14414712535643392, -0.42336665997586875], [0.1749115003378685, -0.14142339158532277, -0.02285878793762684], [0.15738305548083706, 0.13765089387891857, 0.2680574345314087], [0.36053437261822335, -0.28772540450406314, -0.2854720423002959], [-1.0605606855659953, -0.8983029504408442, 0.3830243719368903], [-0.05157592384589246, 0.03161922906323353, -0.511416959178101], [-0.30312660430297794, 0.42225586482247107, 0.08055832122646849], [0.09379876322224849, -0.5782243470365651, 0.34245987223655966], [0.283322593527046, -0.33332117314258414, -0.10865744140321659], [-0.6016077849748523, 0.23663799001907948, -0.008086016906058688]], "b2": [[-0.11831313773104064, -0.1867370408293673, 0.30505017856040795]], "mean": [1.0858575105667114, 24.965003967285156, 37.03790283203125, 27.379409790039062], "std": [0.6307070851325989, 29.46994972229004, 40.15568161010742, 34.67572021484375]}